tree
version=v4
num_class=1
num_tree_per_iteration=1
label_index=0
max_feature_idx=9
objective=lambdarank
feature_names=user_age_days watch_count avg_watch_pct content_popularity genre_match_score release_recency cf_score cb_score trending_score session_score
feature_infos=[0.5:1.6799999475479126] none none [0.0040000001899898052:1.4620000123977661] [0.70070278644561768:0.95577126741409302] [0:1] [0.70070278644561768:0.95577126741409302] [0.70070278644561768:0.95577126741409302] none none
tree_sizes=343 451 453 562 563 563 565 564 564 343 568 568 458 456 459

Tree=0
num_leaves=2
num_cat=0
split_feature=3
split_gain=1.25168
threshold=0.16600000113248828
decision_type=2
left_child=-1
right_child=-2
leaf_value=0.099999999999999534 -0.04944947068261682
leaf_weight=0.20938167721033096 0.42342554777860641
leaf_count=74 6
internal_value=0
internal_weight=0
internal_count=80
is_linear=0
shrinkage=0.05


Tree=1
num_leaves=3
num_cat=0
split_feature=3 5
split_gain=1.19117 1.33227e-15
threshold=0.16600000113248828 0.65000000596046459
decision_type=2 2
left_child=1 -1
right_child=-2 -3
leaf_value=0.093059467281055852 -0.016806676460126846 0.093059478346662158
leaf_weight=0.029375040903687366 1.6127533912658691 0.26189055293798447
leaf_count=14 6 60
internal_value=0 0.0930595
internal_weight=0 0.291266
internal_count=80 74
is_linear=0
shrinkage=0.05


Tree=2
num_leaves=3
num_cat=0
split_feature=3 3
split_gain=0.650941 2.22045e-16
threshold=0.16600000113248828 0.0075000002980232247
decision_type=2 2
left_child=1 -1
right_child=-2 -3
leaf_value=0.088579417606121647 -0.010124017297705156 0.088579421952448056
leaf_weight=0.045710764825343975 1.6285322308540344 0.14041925966739655
leaf_count=30 6 44
internal_value=0 0.0885794
internal_weight=0 0.18613
internal_count=80 74
is_linear=0
shrinkage=0.05


Tree=3
num_leaves=4
num_cat=0
split_feature=3 3 5
split_gain=0.436098 3.88578e-16 3.33067e-16
threshold=0.16600000113248828 0.0075000002980232247 0.65000000596046459
decision_type=2 2 2
left_child=1 -1 -3
right_child=-2 2 -4
leaf_value=0.084953332635990184 -0.0072295718231007462 0.08495333399929271 0.084953325700449292
leaf_weight=0.034189671277999767 1.6359142065048218 0.014040486887097359 0.090987041592597961
leaf_count=30 6 4 40
internal_value=0 0.0849533 0.0849533
internal_weight=0 0.139217 0.105028
internal_count=80 74 44
is_linear=0
shrinkage=0.05


Tree=4
num_leaves=4
num_cat=0
split_feature=3 3 5
split_gain=0.31966 2.77556e-16 1.38778e-17
threshold=0.16600000113248828 0.0075000002980232247 0.65000000596046459
decision_type=2 2 2
left_child=1 -1 -3
right_child=-2 2 -4
leaf_value=0.081875608859788604 -0.0055724363902978835 0.081875605669201323 0.081875603416967924
leaf_weight=0.072947457432746776 1.6399588286876678 0.011256744153797626 0.027411043643951416
leaf_count=30 6 4 40
internal_value=0 0.0818756 0.0818756
internal_weight=0 0.111615 0.0386678
internal_count=80 74 44
is_linear=0
shrinkage=0.05


Tree=5
num_leaves=4
num_cat=0
split_feature=3 5 3
split_gain=0.246833 2.498e-16 2.77556e-17
threshold=0.16600000113248828 0.65000000596046459 0.0075000002980232247
decision_type=2 2 2
left_child=1 -1 -3
right_child=-2 2 -4
leaf_value=0.079206439451049715 -0.0044892738912199947 0.07920643092006735 0.079206430763576391
leaf_weight=0.0093878954648970447 1.6423397064208984 0.060836698859930038 0.022860255092382431
leaf_count=14 6 20 40
internal_value=0 0.0792064 0.0792064
internal_weight=0 0.0930848 0.083697
internal_count=80 74 60
is_linear=0
shrinkage=0.05


Tree=6
num_leaves=4
num_cat=0
split_feature=3 5 3
split_gain=0.197266 2.498e-16 5.55112e-16
threshold=0.16600000113248828 0.65000000596046459 0.0075000002980232247
decision_type=2 2 2
left_child=1 -1 -3
right_child=-2 2 -4
leaf_value=0.076861762525039734 -0.0037230229770781813 0.076861767166851419 0.076861781123503531
leaf_weight=0.019553765654563793 1.6437772512435913 0.052037328481674194 0.0080300373956561089
leaf_count=14 6 20 40
internal_value=0 0.0768618 0.0768618
internal_weight=0 0.0796211 0.0600674
internal_count=80 74 60
is_linear=0
shrinkage=0.05


Tree=7
num_leaves=4
num_cat=0
split_feature=3 3 5
split_gain=0.161569 2.77556e-16 9.71445e-17
threshold=0.16600000113248828 0.0075000002980232247 0.65000000596046459
decision_type=2 2 2
left_child=1 -1 -3
right_child=-2 2 -4
leaf_value=0.074782024891739005 -0.0031514121412457258 0.074782026786464964 0.074782032998934142
leaf_weight=0.017020795494317897 1.6446366310119629 0.0069898366928100577 0.045296475291252136
leaf_count=30 6 4 40
internal_value=0 0.074782 0.074782
internal_weight=0 0.0693071 0.0522863
internal_count=80 74 44
is_linear=0
shrinkage=0.05


Tree=8
num_leaves=4
num_cat=0
split_feature=3 5 3
split_gain=0.134805 1.94289e-16 4.16334e-17
threshold=0.16600000113248828 0.65000000596046459 0.0075000002980232247
decision_type=2 2 2
left_child=1 -1 -3
right_child=-2 2 -4
leaf_value=0.072924433924492701 -0.002708551191927483 0.072924444896813129 0.072924441766959308
leaf_weight=0.006162423174828179 1.6451220214366913 0.015005976893007755 0.039934556931257248
leaf_count=14 6 20 40
internal_value=0 0.0729244 0.0729244
internal_weight=0 0.061103 0.0549405
internal_count=80 74 60
is_linear=0
shrinkage=0.05


Tree=9
num_leaves=2
num_cat=0
split_feature=3
split_gain=0.114108
threshold=0.16600000113248828
decision_type=2
left_child=-1
right_child=-2
leaf_value=0.071253664670422712 -0.0023553944612055826
leaf_weight=0.054389745928347 1.6453580260276794
leaf_count=74 6
internal_value=0
internal_weight=0
internal_count=80
is_linear=0
shrinkage=0.05


Tree=10
num_leaves=4
num_cat=0
split_feature=3 3 5
split_gain=0.0977288 1.11022e-16 4.16334e-17
threshold=0.16600000113248828 0.0075000002980232247 0.65000000596046459
decision_type=2 2 2
left_child=1 -1 -3
right_child=-2 2 -4
leaf_value=0.069746056515255589 -0.0020676547137599838 0.069746046340969967 0.069746051614653068
leaf_weight=0.011979473754763492 1.6454220116138458 0.0049195457249879828 0.031880296766757965
leaf_count=30 6 4 40
internal_value=0 0.0697461 0.0697461
internal_weight=0 0.0487793 0.0367998
internal_count=80 74 44
is_linear=0
shrinkage=0.05


Tree=11
num_leaves=4
num_cat=0
split_feature=3 3 5
split_gain=0.0845065 1.38778e-17 1.38778e-17
threshold=0.16600000113248828 0.0075000002980232247 0.65000000596046459
decision_type=2 2 2
left_child=1 -1 -3
right_child=-2 2 -4
leaf_value=0.068377771175153965 -0.0018288922519247445 0.068377770939530721 0.068377768409161696
leaf_weight=0.010807834565639385 1.6453676223754883 0.0044383942149579516 0.028762277215719223
leaf_count=30 6 4 40
internal_value=0 0.0683778 0.0683778
internal_weight=0 0.0440085 0.0332007
internal_count=80 74 44
is_linear=0
shrinkage=0.05


Tree=12
num_leaves=3
num_cat=0
split_feature=3 3
split_gain=0.0736623 1.11022e-16
threshold=0.16600000113248828 0.0075000002980232247
decision_type=2 2
left_child=1 -1
right_child=-2 -3
leaf_value=0.06713123563682398 -0.0016279023344099178 0.06713124172124961
leaf_weight=0.0097978832200168453 1.6452308297157288 0.030098192393779755
leaf_count=30 6 44
internal_value=0 0.0671312
internal_weight=0 0.0398961
internal_count=80 74
is_linear=0
shrinkage=0.05


Tree=13
num_leaves=3
num_cat=0
split_feature=3 5
split_gain=0.0646543 3.747e-16
threshold=0.16600000113248828 0.65000000596046459
decision_type=2 2
left_child=1 -1
right_child=-2 -3
leaf_value=0.065992891240206242 -0.0014567394428579206 0.065992874395110118
leaf_weight=0.0036622690968214347 1.6450366973876953 0.032650639303028584
leaf_count=14 6 60
internal_value=0 0.0659929
internal_weight=0 0.0363129
internal_count=80 74
is_linear=0
shrinkage=0.05


Tree=14
num_leaves=3
num_cat=0
split_feature=3 3
split_gain=0.0570865 1.38778e-17
threshold=0.16600000113248828 0.0075000002980232247
decision_type=2 2
left_child=1 -1
right_child=-2 -3
leaf_value=0.064950111101180596 -0.0013095128108126092 0.064950113970392784
leaf_weight=0.008144165389239677 1.6448035538196564 0.025018124608322978
leaf_count=30 6 44
internal_value=0 0.0649501
internal_weight=0 0.0331623
internal_count=80 74
is_linear=0
shrinkage=0.05


end of trees

feature_importances:
content_popularity=26
release_recency=10

parameters:
[boosting: gbdt]
[objective: lambdarank]
[metric: ndcg]
[tree_learner: serial]
[device_type: cpu]
[data_sample_strategy: bagging]
[data: ]
[valid: ]
[num_iterations: 200]
[learning_rate: 0.05]
[num_leaves: 31]
[num_threads: 0]
[seed: 0]
[deterministic: 0]
[force_col_wise: 0]
[force_row_wise: 0]
[histogram_pool_size: -1]
[max_depth: -1]
[min_data_in_leaf: 2]
[min_sum_hessian_in_leaf: 0.001]
[bagging_fraction: 1]
[pos_bagging_fraction: 1]
[neg_bagging_fraction: 1]
[bagging_freq: 0]
[bagging_seed: 3]
[feature_fraction: 1]
[feature_fraction_bynode: 1]
[feature_fraction_seed: 2]
[extra_trees: 0]
[extra_seed: 6]
[early_stopping_round: 0]
[first_metric_only: 0]
[max_delta_step: 0]
[lambda_l1: 0]
[lambda_l2: 0]
[linear_lambda: 0]
[min_gain_to_split: 0]
[drop_rate: 0.1]
[max_drop: 50]
[skip_drop: 0.5]
[xgboost_dart_mode: 0]
[uniform_drop: 0]
[drop_seed: 4]
[top_rate: 0.2]
[other_rate: 0.1]
[min_data_per_group: 100]
[max_cat_threshold: 32]
[cat_l2: 10]
[cat_smooth: 10]
[max_cat_to_onehot: 4]
[top_k: 20]
[monotone_constraints: ]
[monotone_constraints_method: basic]
[monotone_penalty: 0]
[feature_contri: ]
[forcedsplits_filename: ]
[refit_decay_rate: 0.9]
[cegb_tradeoff: 1]
[cegb_penalty_split: 0]
[cegb_penalty_feature_lazy: ]
[cegb_penalty_feature_coupled: ]
[path_smooth: 0]
[interaction_constraints: ]
[verbosity: -1]
[saved_feature_importance_type: 0]
[use_quantized_grad: 0]
[num_grad_quant_bins: 4]
[quant_train_renew_leaf: 0]
[stochastic_rounding: 1]
[linear_tree: 0]
[max_bin: 255]
[max_bin_by_feature: ]
[min_data_in_bin: 3]
[bin_construct_sample_cnt: 200000]
[data_random_seed: 1]
[is_enable_sparse: 1]
[enable_bundle: 1]
[use_missing: 1]
[zero_as_missing: 0]
[feature_pre_filter: 1]
[pre_partition: 0]
[two_round: 0]
[header: 0]
[label_column: ]
[weight_column: ]
[group_column: ]
[ignore_column: ]
[categorical_feature: ]
[forcedbins_filename: ]
[precise_float_parser: 0]
[parser_config_file: ]
[objective_seed: 5]
[num_class: 1]
[is_unbalance: 0]
[scale_pos_weight: 1]
[sigmoid: 1]
[boost_from_average: 1]
[reg_sqrt: 0]
[alpha: 0.9]
[fair_c: 1]
[poisson_max_delta_step: 0.7]
[tweedie_variance_power: 1.5]
[lambdarank_truncation_level: 30]
[lambdarank_norm: 1]
[label_gain: ]
[lambdarank_position_bias_regularization: 0]
[eval_at: 5,10,20]
[multi_error_top_k: 1]
[auc_mu_weights: ]
[num_machines: 1]
[local_listen_port: 12400]
[time_out: 120]
[machine_list_filename: ]
[machines: ]
[gpu_platform_id: -1]
[gpu_device_id: -1]
[gpu_use_dp: 0]
[num_gpu: 1]

end of parameters

pandas_categorical:null
